tree
version=v3
num_class=1
num_tree_per_iteration=1
label_index=0
max_feature_idx=3
objective=regression
feature_names=Column_0 Column_1 Column_2 Column_3
feature_infos=[4.2999999999999998:7.7000000000000002] [2:4.4000000000000004] [1:6.9000000000000004] [0.10000000000000001:2.5]
tree_sizes=421 434 455 460 455 460 459 458 460 442 540 459 443 462 445 541 545 542 464 463 535 464 547 539 466 540 468 468 552 467 467 469 466 469 555 471 554 554 469 468 555 471 472 472 554 558 473 472 474 472 556 556 473 471 472 556 558 471 468 473 471 558 470 473 559 472 560 475 560 472 473 560 555 557 473 555 475 558 474 556 475 556 475 473 556 558 474 558 558 475 558 474 559 473 470 556 474 475 557 557

Tree=0
num_leaves=4
num_cat=0
split_feature=2 3 3
split_gain=59.2776 15.0744 0.225
threshold=3.1500000000000004 1.6500000000000001 1.3500000000000003
decision_type=2 2 2
left_child=-1 2 -2
right_child=1 -3 -4
leaf_value=0.90243902439024393 1 1.094871794871795 1.0149999999999999
leaf_weight=41 20 39 20
leaf_count=41 20 39 20
internal_value=0 0.506329 0.075
internal_weight=0 79 40
internal_count=120 79 40
shrinkage=1


Tree=1
num_leaves=4
num_cat=0
split_feature=2 3 3
split_gain=48.0148 12.2103 0.18225
threshold=3.1500000000000004 1.6500000000000001 1.3500000000000003
decision_type=2 2 2
left_child=-1 2 -2
right_child=1 -3 -4
leaf_value=-0.087804875504679802 -0 0.085384613084487429 0.013500000243075192
leaf_weight=41 20 39 20
leaf_count=41 20 39 20
internal_value=0 0.455696 0.0675
internal_weight=0 79 40
internal_count=120 79 40
shrinkage=0.1


Tree=2
num_leaves=4
num_cat=0
split_feature=2 2 2
split_gain=38.892 10.1301 0.202812
threshold=3.1500000000000004 4.8500000000000005 5.5500000000000007
decision_type=2 2 2
left_child=-1 -2 -3
right_child=1 2 -4
leaf_value=-0.079024390040374384 0.0047473700239490241 0.069250703733414409 0.083491921424865723
leaf_weight=41 39 20 20
leaf_count=41 39 20 20
internal_value=0 0.410127 0.763713
internal_weight=0 79 40
internal_count=120 79 40
shrinkage=0.1


Tree=3
num_leaves=4
num_cat=0
split_feature=2 3 3
split_gain=31.5025 8.39513 0.108056
threshold=3.1500000000000004 1.6500000000000001 1.3500000000000003
decision_type=2 2 2
left_child=-1 2 -2
right_child=1 -3 -4
leaf_value=-0.071121952591872803 -0.00047473697923123838 0.069925367985016265 0.0099202671833336364
leaf_weight=41 20 39 20
leaf_count=41 20 39 20
internal_value=0 0.369114 0.0472277
internal_weight=0 79 40
internal_count=120 79 40
shrinkage=0.1


Tree=4
num_leaves=4
num_cat=0
split_feature=2 2 2
split_gain=25.517 6.94242 0.156677
threshold=3.1500000000000004 4.8500000000000005 5.5500000000000007
decision_type=2 2 2
left_child=-1 -2 -3
right_child=1 2 -4
leaf_value=-0.064009753596491928 0.0031982468393368605 0.056233173385262493 0.068750243782997142
leaf_weight=41 39 20 20
leaf_count=41 39 20 20
internal_value=0 0.332203 0.624917
internal_weight=0 79 40
internal_count=120 79 40
shrinkage=0.1


Tree=5
num_leaves=4
num_cat=0
split_feature=3 3 0
split_gain=20.8332 6.05105 0.102818
threshold=0.50000000000000011 1.6500000000000001 5.9500000000000011
decision_type=2 2 2
left_child=-1 2 -2
right_child=1 -3 -4
leaf_value=-0.060047805309295654 -0.0023737277835607531 0.057275752837841337 0.0075218265610081814
leaf_weight=39 21 39 21
leaf_count=39 21 39 21
internal_value=0 0.289119 0.0257405
internal_weight=0 81 42
internal_count=120 81 42
shrinkage=0.1


Tree=6
num_leaves=4
num_cat=0
split_feature=3 2 2
split_gain=16.8749 5.02018 0.195256
threshold=0.50000000000000011 4.9500000000000011 4.4500000000000011
decision_type=2 2 2
left_child=-1 2 -2
right_child=1 -3 -4
leaf_value=-0.054043024778366089 -0.0022100287489593032 0.054561233605657303 0.010820239290352101
leaf_weight=39 23 35 23
leaf_count=39 23 35 23
internal_value=0 0.260207 0.0430511
internal_weight=0 81 46
internal_count=120 81 46
shrinkage=0.1


Tree=7
num_leaves=4
num_cat=0
split_feature=3 2 2
split_gain=13.6686 4.15957 0.235986
threshold=0.50000000000000011 4.7500000000000009 5.4500000000000011
decision_type=2 2 2
left_child=-1 -2 -3
right_child=1 2 -4
leaf_value=-0.048638722300529486 -0.0012933270502332095 0.036534897131579265 0.051196976329969328
leaf_weight=39 37 21 23
leaf_count=39 37 21 23
internal_value=0 0.234186 0.441992
internal_weight=0 81 44
internal_count=120 81 44
shrinkage=0.1


Tree=8
num_leaves=4
num_cat=0
split_feature=3 3 0
split_gain=11.0716 3.46204 0.0410688
threshold=0.50000000000000011 1.6500000000000001 5.9500000000000011
decision_type=2 2 2
left_child=-1 2 -2
right_child=1 -3 -4
leaf_value=-0.043774849176406866 -0.0019721662293055229 0.042531156998414262 0.004281880653330258
leaf_weight=39 21 39 21
leaf_count=39 21 39 21
internal_value=0 0.210768 0.0115486
internal_weight=0 81 42
internal_count=120 81 42
shrinkage=0.1


Tree=9
num_leaves=4
num_cat=0
split_feature=2 2 2
split_gain=9.02767 2.75818 0.179849
threshold=4.7500000000000009 1.8 5.4500000000000011
decision_type=2 2 2
left_child=1 -1 -2
right_child=2 -3 -4
leaf_value=-0.039920141508704737 0.029356849016178223 -0.001819316560623089 0.042156764217044999
leaf_weight=38 21 38 23
leaf_count=38 21 38 23
internal_value=0 -0.208697 0.360477
internal_weight=0 76 44
internal_count=120 76 44
shrinkage=0.1


Tree=10
num_leaves=5
num_cat=0
split_feature=3 2 1 1
split_gain=7.35062 2.06142 0.373256 0.153793
threshold=1.0500000000000003 5.0500000000000007 2.8500000000000001 3.3500000000000001
decision_type=2 2 2 2
left_child=3 2 -2 -1
right_child=1 -3 -4 -5
leaf_value=-0.024798562219366434 0.014371967617244947 0.038634750992059708 -0.0044822524168661665 -0.036462491521468535
leaf_weight=20 21 32 21 26
leaf_count=20 21 32 21 26
internal_value=0 0.195135 0.0494486 -0.313912
internal_weight=0 74 42 46
internal_count=120 74 42 46
shrinkage=0.1


Tree=11
num_leaves=4
num_cat=0
split_feature=3 3 3
split_gain=6.05525 1.94686 0.0283019
threshold=0.50000000000000011 1.5500000000000003 1.9500000000000002
decision_type=2 2 2
left_child=-1 -2 -3
right_child=1 2 -4
leaf_value=-0.032373195733779517 -0.00050146611980520764 0.02793060211198671 0.03312234140577771
leaf_weight=39 39 21 21
leaf_count=39 39 21 21
internal_value=0 0.155871 0.305265
internal_weight=0 81 42
internal_count=120 81 42
shrinkage=0.1


Tree=12
num_leaves=4
num_cat=0
split_feature=2 2 0
split_gain=4.9667 1.50634 0.127575
threshold=4.7500000000000009 1.8 6.5500000000000007
decision_type=2 2 2
left_child=1 -1 -2
right_child=2 -3 -4
leaf_value=-0.029558156038585467 0.031653161098559694 -0.0014012591864325499 0.020839094668626785
leaf_weight=38 24 38 20
leaf_count=38 24 38 20
internal_value=0 -0.154797 0.267377
internal_weight=0 76 44
internal_count=120 76 44
shrinkage=0.1


Tree=13
num_leaves=4
num_cat=0
split_feature=3 3 2
split_gain=4.04107 1.28967 0.0237286
threshold=1.5500000000000003 0.50000000000000011 5.4500000000000011
decision_type=2 2 2
left_child=1 -1 -2
right_child=2 -3 -4
leaf_value=-0.026324454714090395 0.022515154257416726 -0.00060731424735142642 0.027274360033598816
leaf_weight=39 20 39 22
leaf_count=39 20 39 22
internal_value=0 -0.134659 0.250081
internal_weight=0 78 42
internal_count=120 78 42
shrinkage=0.1


Tree=14
num_leaves=4
num_cat=0
split_feature=2 2 0
split_gain=3.31294 0.986828 0.109279
threshold=4.7500000000000009 1.8 6.5500000000000007
decision_type=2 2 2
left_child=1 -1 -2
right_child=2 -3 -4
leaf_value=-0.024037571878809678 0.026386549944678945 -0.0012475942335042516 0.016377953514456752
leaf_weight=38 24 38 20
leaf_count=38 24 38 20
internal_value=0 -0.126426 0.218372
internal_weight=0 76 44
internal_count=120 76 44
shrinkage=0.1


Tree=15
num_leaves=5
num_cat=0
split_feature=3 1 0 3
split_gain=2.71412 0.864377 0.0895248 0.0204903
threshold=1.5500000000000003 2.9500000000000006 5.1500000000000012 1.9500000000000002
decision_type=2 2 2 2
left_child=1 -1 -3 -2
right_child=3 2 -4 -5
leaf_value=0.0030315501482359002 0.01828617233605612 -0.022664172149130277 -0.014139721271666614 0.022703699270884198
leaf_weight=28 21 28 22 21
leaf_count=28 21 28 22 21
internal_value=0 -0.110357 -0.189134 0.204949
internal_weight=0 78 50 42
internal_count=120 78 50 42
shrinkage=0.1


Tree=16
num_leaves=5
num_cat=0
split_feature=2 1 2 0
split_gain=2.2359 0.763625 0.0314748 0.00742336
threshold=4.8500000000000005 3.0500000000000003 5.5500000000000007 5.6500000000000012
decision_type=2 2 2 2
left_child=1 3 -2 -1
right_child=2 -3 -4 -5
leaf_value=-0.0012443667463958264 0.016499044969677926 -0.019422091175802056 0.022109284698963168 0.0014802184700965883
leaf_weight=20 20 40 20 20
leaf_count=20 20 40 20 20
internal_value=0 -0.0965208 0.193042 0.00117926
internal_weight=0 80 40 40
internal_count=120 80 40 40
shrinkage=0.1


Tree=17
num_leaves=5
num_cat=0
split_feature=3 1 0 0
split_gain=1.84812 0.589073 0.0666093 0.0144565
threshold=1.5500000000000003 2.9500000000000006 5.1500000000000012 6.4500000000000011
decision_type=2 2 2 2
left_child=1 -1 -3 -2
right_child=3 2 -4 -5
leaf_value=0.0025064580757836151 0.018681016564369202 -0.018845069089106152 -0.011492112079973926 0.01496626041829586
leaf_weight=28 22 28 22 20
leaf_count=28 22 28 22 20
internal_value=0 -0.0910651 -0.156098 0.169121
internal_weight=0 78 50 42
internal_count=120 78 50 42
shrinkage=0.1


Tree=18
num_leaves=4
num_cat=0
split_feature=2 1 1
split_gain=1.55606 0.787384 0.0839441
threshold=5.0500000000000007 2.9500000000000006 3.1500000000000008
decision_type=2 2 2
left_child=1 -1 -3
right_child=-2 2 -4
leaf_value=0.0056464434477675246 0.018883783556520942 -0.0092041248341874129 -0.017131662330425838
leaf_weight=32 32 22 34
leaf_count=32 32 22 34
internal_value=0 -0.0686683 -0.140173
internal_weight=0 88 56
internal_count=120 88 56
shrinkage=0.1


Tree=19
num_leaves=4
num_cat=0
split_feature=2 1 1
split_gain=1.26041 0.637781 0.0679947
threshold=5.0500000000000007 2.9500000000000006 3.1500000000000008
decision_type=2 2 2
left_child=1 -1 -3
right_child=-2 2 -4
leaf_value=0.005081798954961414 0.016995405242778362 -0.0082837125572206623 -0.015418495443266103
leaf_weight=32 32 22 34
leaf_count=32 32 22 34
internal_value=0 -0.0618015 -0.126155
internal_weight=0 88 56
internal_count=120 88 56
shrinkage=0.1


Tree=20
num_leaves=5
num_cat=0
split_feature=3 2 0 2
split_gain=1.05905 0.320522 0.0268901 8.22498e-05
threshold=1.5500000000000003 1.8 6.4500000000000011 4.2500000000000009
decision_type=2 2 2 2
left_child=1 -1 -2 -3
right_child=2 3 -4 -5
leaf_value=-0.013470450631882014 0.015214890783483332 -0.0005021411832422019 0.010148550346493722 -0.00078893352299928658
leaf_weight=38 22 20 20 20
leaf_count=38 22 20 20 20
internal_value=0 -0.0689357 0.128023 -0.00645537
internal_weight=0 78 42 40
internal_count=120 78 42 40
shrinkage=0.1


Tree=21
num_leaves=4
num_cat=0
split_feature=2 1 1
split_gain=0.870638 0.460227 0.080256
threshold=5.0500000000000007 2.8500000000000001 3.0500000000000003
decision_type=2 2 2
left_child=1 -1 -3
right_child=-2 2 -4
leaf_value=0.0057335160034536212 0.014125201106071473 -0.0047543409839272506 -0.01248108670115471
leaf_weight=27 32 20 41
leaf_count=27 32 20 41
internal_value=0 -0.0513644 -0.0994773
internal_weight=0 88 61
internal_count=120 88 61
shrinkage=0.1


Tree=22
num_leaves=5
num_cat=0
split_feature=3 2 1 1
split_gain=0.718101 0.246608 0.121438 0.0097666
threshold=1.0500000000000003 5.0500000000000007 2.8500000000000001 3.3500000000000001
decision_type=2 2 2 2
left_child=3 2 -2 -1
right_child=1 -3 -4 -5
leaf_value=-0.0081502229999750857 0.0064373307817039045 0.012712681270204486 -0.0043169905062920106 -0.011089557151381787
leaf_weight=20 21 32 21 26
leaf_count=20 21 32 21 26
internal_value=0 0.0609909 0.0106017 -0.0981159
internal_weight=0 74 42 46
internal_count=120 74 42 46
shrinkage=0.1


Tree=23
num_leaves=5
num_cat=0
split_feature=3 2 0 2
split_gain=0.593154 0.17341 0.0332651 5.22026e-05
threshold=1.5500000000000003 1.8 6.4500000000000011 4.2500000000000009
decision_type=2 2 2 2
left_child=1 -1 -2 -3
right_child=2 3 -4 -5
leaf_value=-0.0099966335061349373 0.012264438583092258 -0.00044912655546795581 0.0066294533945620059 -0.00067760542966425422
leaf_weight=38 22 20 20 20
leaf_count=38 22 20 20 20
internal_value=0 -0.0515906 0.0958111 -0.00563366
internal_weight=0 78 42 40
internal_count=120 78 42 40
shrinkage=0.1


Tree=24
num_leaves=4
num_cat=0
split_feature=2 1 1
split_gain=0.489373 0.281933 0.0490784
threshold=5.0500000000000007 2.8500000000000001 3.0500000000000003
decision_type=2 2 2
left_child=1 -1 -3
right_child=-2 2 -4
leaf_value=0.0046568453754945146 0.010589990380685777 -0.003555404721992091 -0.0095977177071135227
leaf_weight=27 32 20 41
leaf_count=27 32 20 41
internal_value=0 -0.0385091 -0.0761663
internal_weight=0 88 61
internal_count=120 88 61
shrinkage=0.1


Tree=25
num_leaves=5
num_cat=0
split_feature=3 2 0 2
split_gain=0.401212 0.112106 0.0321471 9.26152e-07
threshold=1.5500000000000003 1.8 6.4500000000000011 4.2500000000000009
decision_type=2 2 2 2
left_child=1 -1 -2 -3
right_child=2 3 -4 -5
leaf_value=-0.0081326032841676169 0.010517721081321891 -0.00056310787331312893 0.0049782357923686509 -0.00053267513052560392
leaf_weight=38 22 20 20 20
leaf_count=38 22 20 20 20
internal_value=0 -0.0424301 0.0787987 -0.00547892
internal_weight=0 78 42 40
internal_count=120 78 42 40
shrinkage=0.1


Tree=26
num_leaves=4
num_cat=0
split_feature=2 1 1
split_gain=0.341204 0.205381 0.0201219
threshold=5.0500000000000007 2.9500000000000006 3.1500000000000008
decision_type=2 2 2
left_child=1 -1 -3
right_child=-2 2 -4
leaf_value=0.0031753298688272482 0.0088426585658453408 -0.0045109150412661787 -0.0083922206369393022
leaf_weight=32 32 22 34
leaf_count=32 32 22 34
internal_value=0 -0.0321551 -0.0686742
internal_weight=0 88 56
internal_count=120 88 56
shrinkage=0.1


Tree=27
num_leaves=4
num_cat=0
split_feature=2 1 1
split_gain=0.276375 0.170586 0.0272474
threshold=5.0500000000000007 2.8500000000000001 3.0500000000000003
decision_type=2 2 2
left_child=1 -1 -3
right_child=-2 2 -4
leaf_value=0.0037238363866452817 0.0079583927115891139 -0.0027971134590916336 -0.0072992655198748525
leaf_weight=27 32 20 41
leaf_count=27 32 20 41
internal_value=0 -0.0289396 -0.0582315
internal_weight=0 88 61
internal_count=120 88 61
shrinkage=0.1


Tree=28
num_leaves=5
num_cat=0
split_feature=3 3 0 0
split_gain=0.227523 0.0589827 0.0346645 0.00587707
threshold=1.5500000000000003 1.0500000000000003 6.4500000000000011 5.0500000000000007
decision_type=2 2 2 2
left_child=1 3 -2 -1
right_child=2 -3 -4 -5
leaf_value=-0.0064801289198490293 0.0086731407024093314 0.0001017938120639883 0.0029208523686975242 -0.0042000095057301221
leaf_weight=26 22 32 20 20
leaf_count=26 22 32 20 20
internal_value=0 -0.0319521 0.0593396 -0.0548877
internal_weight=0 78 42 46
internal_count=120 78 42 46
shrinkage=0.1


Tree=29
num_leaves=4
num_cat=0
split_feature=2 1 1
split_gain=0.193759 0.127735 0.019015
threshold=5.0500000000000007 2.8500000000000001 3.0500000000000003
decision_type=2 2 2
left_child=1 -1 -3
right_child=-2 2 -4
leaf_value=0.0033034750398386412 0.0066635669943934774 -0.0024299326282925908 -0.0061909588962429912
leaf_weight=27 32 20 41
leaf_count=27 32 20 41
internal_value=0 -0.0242312 -0.0495784
internal_weight=0 88 61
internal_count=120 88 61
shrinkage=0.1


Tree=30
num_leaves=4
num_cat=0
split_feature=2 1 1
split_gain=0.156945 0.107015 0.0232285
threshold=5.0500000000000007 2.7500000000000004 3.0500000000000003
decision_type=2 2 2
left_child=1 -1 -3
right_child=-2 2 -4
leaf_value=0.0042493285425007346 0.0059972101502353331 -0.0017944783110309531 -0.0055718631006595569
leaf_weight=20 32 27 41
leaf_count=20 32 27 41
internal_value=0 -0.021808 -0.0407202
internal_weight=0 88 68
internal_count=120 88 68
shrinkage=0.1


Tree=31
num_leaves=4
num_cat=0
split_feature=3 0 1
split_gain=0.132375 0.149034 0.0178076
threshold=1.3500000000000003 6.2500000000000009 2.9500000000000006
decision_type=2 2 2
left_child=2 -2 -1
right_child=1 -3 -4
leaf_value=-0.00082010757294483485 0.010137980245053769 -0.00035907796608578219 -0.0044597676228277571
leaf_weight=20 21 38 41
leaf_count=20 21 38 41
internal_value=0 0.0337716 -0.0326644
internal_weight=0 59 61
internal_count=120 59 61
shrinkage=0.1


Tree=32
num_leaves=4
num_cat=0
split_feature=2 1 1
split_gain=0.119659 0.0807195 0.0134949
threshold=5.0500000000000007 2.7500000000000004 3.0500000000000003
decision_type=2 2 2
left_child=1 -1 -3
right_child=-2 2 -4
leaf_value=0.0036803293635603047 0.0052365772149642002 -0.001810757901451628 -0.00468991688202794
leaf_weight=20 32 27 41
leaf_count=20 32 27 41
internal_value=0 -0.0190421 -0.0354672
internal_weight=0 88 68
internal_count=120 88 68
shrinkage=0.1


Tree=33
num_leaves=4
num_cat=0
split_feature=2 1 1
split_gain=0.0969234 0.0653828 0.0109473
threshold=5.0500000000000007 2.7500000000000004 3.1500000000000008
decision_type=2 2 2
left_child=1 -1 -3
right_child=-2 2 -4
leaf_value=0.0033122963825007903 0.0047129194379522234 -0.001923229476532844 -0.0044608689954175667
leaf_weight=20 32 34 34
leaf_count=20 32 34 34
internal_value=0 -0.0171379 -0.0319205
internal_weight=0 88 68
internal_count=120 88 68
shrinkage=0.1


Tree=34
num_leaves=5
num_cat=0
split_feature=3 0 0 3
split_gain=0.0800895 0.0335469 0.0186741 0.00343141
threshold=1.5500000000000003 6.4500000000000011 5.0500000000000007 1.0500000000000003
decision_type=2 2 2 2
left_child=2 -2 -1 -4
right_child=1 -3 3 -5
leaf_value=-0.004083924308025207 0.0062152948738499122 0.00055649085203185683 -0.0018291514739394187 -0.0001594139412190998
leaf_weight=26 22 20 20 32
leaf_count=26 22 20 20 32
internal_value=0 0.0352063 -0.0189572 -0.00801621
internal_weight=0 42 78 52
internal_count=120 42 78 52
shrinkage=0.1


Tree=35
num_leaves=4
num_cat=0
split_feature=2 1 1
split_gain=0.0689832 0.0508196 0.00782106
threshold=5.0500000000000007 2.7500000000000004 3.1500000000000008
decision_type=2 2 2
left_child=1 -1 -3
right_child=-2 2 -4
leaf_value=0.0029853012853709518 0.0039760105399182068 -0.0016766405696912177 -0.0038215466009740556
leaf_weight=20 32 34 34
leaf_count=20 32 34 34
internal_value=0 -0.0144582 -0.0274909
internal_weight=0 88 68
internal_count=120 88 68
shrinkage=0.1


Tree=36
num_leaves=5
num_cat=0
split_feature=2 1 0 1
split_gain=0.0558764 0.0411639 0.00737177 0.020764
threshold=5.0500000000000007 2.7500000000000004 5.0500000000000007 3.0500000000000003
decision_type=2 2 2 2
left_child=1 -1 -3 -4
right_child=-2 2 3 -5
leaf_value=0.0026867711951490494 0.0035784094230621125 -0.0039305615684260492 0.00056657269098130722 -0.0037391516224791611
leaf_weight=20 32 23 21 24
leaf_count=20 32 23 21 24
internal_value=0 -0.0130124 -0.0247418 -0.0172981
internal_weight=0 88 68 45
internal_count=120 88 68 45
shrinkage=0.1


Tree=37
num_leaves=5
num_cat=0
split_feature=1 2 0 0
split_gain=0.0471276 0.0344944 0.00689404 0.0176062
threshold=2.7500000000000004 5.0500000000000007 5.8500000000000005 5.1500000000000012
decision_type=2 2 2 2
left_child=-1 2 3 -2
right_child=1 -3 -4 -5
leaf_value=0.0037681172977989683 -0.0031954505780179589 0.0020557315930580865 -0.0037866344366921118 0.0006892616301774979
leaf_weight=26 28 26 20 20
leaf_count=26 28 26 20 20
internal_value=0 -0.0104225 -0.0222677 -0.0157682
internal_weight=0 94 68 48
internal_count=120 94 68 48
shrinkage=0.1


Tree=38
num_leaves=4
num_cat=0
split_feature=3 0 0
split_gain=0.0422079 0.136646 0.00503465
threshold=1.3500000000000003 6.2500000000000009 5.0500000000000007
decision_type=2 2 2
left_child=2 -2 -1
right_child=1 -3 -4
leaf_value=-0.0028985156292597263 0.0083807043997304789 -0.001670612714645502 -0.0010614315553435258
leaf_weight=26 21 38 35
leaf_count=26 21 38 35
internal_value=0 0.0190697 -0.0184445
internal_weight=0 59 61
internal_count=120 59 61
shrinkage=0.1


Tree=39
num_leaves=4
num_cat=0
split_feature=2 0 1
split_gain=0.0382709 0.029527 0.062644
threshold=5.0500000000000007 6.0500000000000007 3.0500000000000003
decision_type=2 2 2
left_child=1 2 -1
right_child=-2 -3 -4
leaf_value=0.0032437392604357054 0.0029614872598358491 -0.004348773011449902 -0.0028888687387936644
leaf_weight=31 32 21 36
leaf_count=31 32 21 36
internal_value=0 -0.010769 -0.000513934
internal_weight=0 88 67
internal_count=120 88 67
shrinkage=0.1


Tree=40
num_leaves=5
num_cat=0
split_feature=1 2 2 0
split_gain=0.0320339 0.0218277 0.00860538 0.0131222
threshold=2.7500000000000004 5.0500000000000007 4.4500000000000011 5.0500000000000007
decision_type=2 2 2 2
left_child=-1 2 3 -2
right_child=1 -3 -4 -5
leaf_value=0.0031066421473112246 -0.0027992030443704649 0.0016050942689896778 -0.0035443007783032957 0.00051050188392400746
leaf_weight=26 23 26 20 25
leaf_count=26 23 26 20 25
internal_value=0 -0.00859284 -0.0180155 -0.010754
internal_weight=0 94 68 48
internal_count=120 94 68 48
shrinkage=0.1


Tree=41
num_leaves=4
num_cat=0
split_feature=3 0 2
split_gain=0.0299775 0.113432 0.00569369
threshold=1.3500000000000003 6.2500000000000009 3.1500000000000004
decision_type=2 2 2
left_child=2 -2 -1
right_child=1 -3 -4
leaf_value=-0.00087965056754466973 0.0075053649688405655 -0.0016524496414747677 -0.0029376952443271875
leaf_weight=41 21 38 20
leaf_count=41 21 38 20
internal_value=0 0.0160711 -0.0155442
internal_weight=0 59 61
internal_count=120 59 61
shrinkage=0.1


Tree=42
num_leaves=4
num_cat=0
split_feature=2 0 1
split_gain=0.0266267 0.0232895 0.0464501
threshold=5.0500000000000007 6.0500000000000007 3.0500000000000003
decision_type=2 2 2
left_child=1 2 -1
right_child=-2 -3 -4
leaf_value=0.0028499535149744443 0.0024702109476493206 -0.0038040644015252057 -0.0024308320186618303
leaf_weight=31 32 21 36
leaf_count=31 32 21 36
internal_value=0 -0.00898258 0.000125165
internal_weight=0 88 67
internal_count=120 88 67
shrinkage=0.1


Tree=43
num_leaves=4
num_cat=0
split_feature=3 0 1
split_gain=0.0230795 0.0255615 0.00562616
threshold=1.5500000000000003 6.4500000000000011 3.0500000000000003
decision_type=2 2 2
left_child=2 -2 -1
right_child=1 -3 -4
leaf_value=-0.0018454442895017567 0.0042421185072850096 -0.0006974817090667785 -0.00014629479693739039
leaf_weight=40 22 20 38
leaf_count=40 22 20 38
internal_value=0 0.0188993 -0.0101765
internal_weight=0 42 78
internal_count=120 42 78
shrinkage=0.1


Tree=44
num_leaves=5
num_cat=0
split_feature=1 0 0 2
split_gain=0.0234492 0.0131634 0.0157591 0.0111226
threshold=2.7500000000000004 5.9500000000000011 6.5500000000000007 1.5500000000000003
decision_type=2 2 2 2
left_child=-1 3 -3 -2
right_child=1 2 -4 -5
leaf_value=0.0026579746064201645 -0.00049623474077289476 0.0026131463283672932 -0.0012653589227490806 -0.003440937530451819
leaf_weight=26 29 20 22 23
leaf_count=26 29 20 22 23
internal_value=0 -0.00735184 0.00581548 -0.017987
internal_weight=0 94 42 52
internal_count=120 94 42 52
shrinkage=0.1


Tree=45
num_leaves=5
num_cat=0
split_feature=1 3 3 2
split_gain=0.0200452 0.0766778 0.0324514 0.00635346
threshold=3.1500000000000008 1.5500000000000003 0.35000000000000003 4.0500000000000007
decision_type=2 2 2 2
left_child=1 3 -2 -1
right_child=2 -3 -4 -5
leaf_value=-0.0027510462773286484 0.00089637724298012003 0.0050270996104668959 -0.0045407456539881732 -0.00042095567751675845
leaf_weight=22 23 29 21 25
leaf_count=22 23 29 21 25
internal_value=0 0.00983408 -0.0169861 -0.0151164
internal_weight=0 76 44 47
internal_count=120 76 44 47
shrinkage=0.1


Tree=46
num_leaves=4
num_cat=0
split_feature=0 2 1
split_gain=0.0204109 0.0862366 0.00425318
threshold=6.2500000000000009 4.4500000000000011 3.0500000000000003
decision_type=2 2 2
left_child=1 2 -1
right_child=-2 -3 -4
leaf_value=-0.0020267214924097063 -0.0018444020264723805 0.0064254247250833691 -0.00030852356952998567
leaf_weight=25 40 21 34
leaf_count=25 40 21 34
internal_value=0 0.00922201 -0.0103657
internal_weight=0 80 59
internal_count=120 80 59
shrinkage=0.1


Tree=47
num_leaves=4
num_cat=0
split_feature=2 0 1
split_gain=0.0196842 0.0179655 0.0312878
threshold=5.2000000000000002 6.0500000000000007 3.0500000000000003
decision_type=2 2 2
left_child=1 2 -1
right_child=-2 -3 -4
leaf_value=0.0022125831046806914 0.0023769923830749811 -0.0031869645770215855 -0.0019862773672988019
leaf_weight=35 27 22 36
leaf_count=35 27 22 36
internal_value=0 -0.00690095 0.000835834
internal_weight=0 93 71
internal_count=120 93 71
shrinkage=0.1


Tree=48
num_leaves=4
num_cat=0
split_feature=0 2 1
split_gain=0.0171166 0.0686416 0.00544825
threshold=6.2500000000000009 4.4500000000000011 3.0500000000000003
decision_type=2 2 2
left_child=1 2 -1
right_child=-2 -3 -4
leaf_value=-0.0020237095411866904 -0.0016890125398640523 0.0057543196507530026 -7.9043455052134749e-05
leaf_weight=25 40 21 34
leaf_count=25 40 21 34
internal_value=0 0.00844506 -0.00903055
internal_weight=0 80 59
internal_count=120 80 59
shrinkage=0.1


Tree=49
num_leaves=4
num_cat=0
split_feature=2 0 1
split_gain=0.0176851 0.0145462 0.0251079
threshold=5.2000000000000002 6.0500000000000007 3.0500000000000003
decision_type=2 2 2
left_child=1 2 -1
right_child=-2 -3 -4
leaf_value=0.0019492435588368347 0.0022530586657079836 -0.0029008454156362199 -0.0018121528323616885
leaf_weight=35 27 22 36
leaf_count=35 27 22 36
internal_value=0 -0.00654114 0.000420567
internal_weight=0 93 71
internal_count=120 93 71
shrinkage=0.1


Tree=50
num_leaves=5
num_cat=0
split_feature=0 0 0 1
split_gain=0.0168879 0.0360399 0.0251744 0.00137123
threshold=5.9500000000000011 6.3500000000000005 5.4500000000000011 3.3500000000000001
decision_type=2 2 2 2
left_child=2 -2 3 -1
right_child=1 -3 -4 -5
leaf_value=0.00097103115099127452 0.004552805878865045 -0.00077864109771326191 -0.0036497116176178682 -0.00015868086960505357
leaf_weight=21 21 32 24 22
leaf_count=21 21 32 24 22
internal_value=0 0.0133382 -0.0105511 0.00393039
internal_weight=0 53 67 43
internal_count=120 53 67 43
shrinkage=0.1


Tree=51
num_leaves=5
num_cat=0
split_feature=1 0 2 0
split_gain=0.0150353 0.00771923 0.0123683 0.0077323
threshold=2.7500000000000004 5.9500000000000011 1.5500000000000003 6.5500000000000007
decision_type=2 2 2 2
left_child=-1 2 -2 -3
right_child=1 3 -4 -5
leaf_value=0.0021283499932346437 -2.9642056224161183e-05 0.0018427000916562974 -0.0031348691731893823 -0.000874067708553577
leaf_weight=26 29 20 23 22
leaf_count=26 29 20 23 22
internal_value=0 -0.00588693 -0.0140311 0.00419631
internal_weight=0 94 52 42
internal_count=120 94 52 42
shrinkage=0.1


Tree=52
num_leaves=4
num_cat=0
split_feature=0 3 1
split_gain=0.0157611 0.0514216 0.00704339
threshold=6.2500000000000009 1.3500000000000003 3.0500000000000003
decision_type=2 2 2
left_child=1 2 -1
right_child=-2 -3 -4
leaf_value=-0.0019763676114380362 -0.0016207572093117054 0.0050599393404332834 0.00023472815039841567
leaf_weight=25 40 21 34
leaf_count=25 40 21 34
internal_value=0 0.00810379 -0.00702177
internal_weight=0 80 59
internal_count=120 80 59
shrinkage=0.1


Tree=53
num_leaves=4
num_cat=0
split_feature=2 0 1
split_gain=0.0149546 0.0152534 0.0204597
threshold=5.2000000000000002 6.0500000000000007 3.0500000000000003
decision_type=2 2 2
left_child=1 2 -1
right_child=-2 -3 -4
leaf_value=0.0018330101881708417 0.0020718430216355179 -0.0029021991162814877 -0.0015624095022859466
leaf_weight=35 27 22 36
leaf_count=35 27 22 36
internal_value=0 -0.00601503 0.00111389
internal_weight=0 93 71
internal_count=120 93 71
shrinkage=0.1


Tree=54
num_leaves=4
num_cat=0
split_feature=0 2 1
split_gain=0.0131307 0.0421579 0.00891518
threshold=6.2500000000000009 4.2500000000000009 3.0500000000000003
decision_type=2 2 2
left_child=1 2 -1
right_child=-2 -3 -4
leaf_value=-0.0021497976267710328 -0.0014793393595391535 0.0044669926568696441 0.00036749632358003189
leaf_weight=24 40 22 34
leaf_count=24 40 22 34
internal_value=0 0.0073967 -0.00674143
internal_weight=0 80 58
internal_count=120 80 58
shrinkage=0.1


Tree=55
num_leaves=5
num_cat=0
split_feature=2 0 1 1
split_gain=0.0135006 0.0124881 0.0176474 0.00489404
threshold=5.2000000000000002 6.0500000000000007 2.9500000000000006 3.2500000000000004
decision_type=2 2 2 2
left_child=1 2 -1 -4
right_child=-2 -3 3 -5
leaf_value=0.002351082748045092 0.0019685457734373848 -0.0026532468639991502 -0.0022125461511313914 -0.00016440320427396469
leaf_weight=23 27 22 20 28
leaf_count=23 27 22 20 28
internal_value=0 -0.00571513 0.000735309 -0.010178
internal_weight=0 93 71 48
internal_count=120 93 71 48
shrinkage=0.1


Tree=56
num_leaves=5
num_cat=0
split_feature=0 0 0 1
split_gain=0.0134101 0.0252635 0.0228941 0.000813564
threshold=5.9500000000000011 5.4500000000000011 6.3500000000000005 3.3500000000000001
decision_type=2 2 2 2
left_child=1 3 -2 -1
right_child=2 -3 -4 -5
leaf_value=0.00095570777720283906 0.0037541731038973447 -0.0035394039431897307 -0.00049510648605064487 8.5527631877498197e-05
leaf_weight=21 21 24 32 22
leaf_count=21 21 24 32 22
internal_value=0 -0.00940212 0.0118857 0.00510499
internal_weight=0 67 53 43
internal_count=120 67 53 43
shrinkage=0.1


Tree=57
num_leaves=4
num_cat=0
split_feature=0 1 0
split_gain=0.0115996 0.0334315 0.0289655
threshold=6.2500000000000009 3.0500000000000003 5.6500000000000012
decision_type=2 2 2
left_child=1 2 -1
right_child=-2 -3 -4
leaf_value=-6.5014127730613668e-05 -0.0013904176772120992 -0.0015085614412217528 0.0051272170956839225
leaf_weight=21 40 37 22
leaf_count=21 40 37 22
internal_value=0 0.00695209 0.0259148
internal_weight=0 80 43
internal_count=120 80 43
shrinkage=0.1


Tree=58
num_leaves=4
num_cat=0
split_feature=2 0 0
split_gain=0.012025 0.0129151 0.012845
threshold=5.2000000000000002 5.1500000000000012 5.9500000000000011
decision_type=2 2 2
left_child=1 -1 -3
right_child=-2 2 -4
leaf_value=0.0010496296925173903 0.001857851430799605 -0.0026928242309676373 0.00025985599853671514
leaf_weight=33 27 34 26
leaf_count=33 27 34 26
internal_value=0 -0.00539376 -0.0141333
internal_weight=0 93 60
internal_count=120 93 60
shrinkage=0.1


Tree=59
num_leaves=4
num_cat=0
split_feature=0 3 1
split_gain=0.0113807 0.0294311 0.00862277
threshold=6.2500000000000009 1.3500000000000003 3.0500000000000003
decision_type=2 2 2
left_child=1 2 -1
right_child=-2 -3 -4
leaf_value=-0.0018655177578330039 -0.0013772361844894476 0.0039035707191076314 0.00058095305541749388
leaf_weight=25 40 21 34
leaf_count=25 40 21 34
internal_value=0 0.00688618 -0.00455687
internal_weight=0 80 59
internal_count=120 80 59
shrinkage=0.1


Tree=60
num_leaves=4
num_cat=0
split_feature=2 0 1
split_gain=0.0111364 0.0146344 0.0151838
threshold=5.4500000000000011 6.1500000000000012 3.0500000000000003
decision_type=2 2 2
left_child=1 2 -1
right_child=-2 -3 -4
leaf_value=0.0015631846731337601 0.0019783487604202138 -0.0027369802225042476 -0.0012847961114150369
leaf_weight=39 23 22 36
leaf_count=39 23 22 36
internal_value=0 -0.00469093 0.00196154
internal_weight=0 97 75
internal_count=120 97 75
shrinkage=0.1


Tree=61
num_leaves=5
num_cat=0
split_feature=0 0 0 1
split_gain=0.00981652 0.0225688 0.0151343 0.000253859
threshold=5.9500000000000011 5.4500000000000011 6.4500000000000011 3.3500000000000001
decision_type=2 2 2 2
left_child=1 3 -2 -1
right_child=2 -3 -4 -5
leaf_value=0.00081542357358904108 0.0027389456231433611 -0.0032610943346905209 -0.00064132331991223273 0.00032934153621846983
leaf_weight=21 26 24 27 22
leaf_count=21 26 24 27 22
internal_value=0 -0.00804431 0.0101692 0.0056673
internal_weight=0 67 53 43
internal_count=120 67 53 43
shrinkage=0.1


Tree=62
num_leaves=4
num_cat=0
split_feature=0 1 0
split_gain=0.00969088 0.0255681 0.021948
threshold=6.2500000000000009 3.0500000000000003 5.6500000000000012
decision_type=2 2 2
left_child=1 2 -1
right_child=-2 -3 -4
leaf_value=-1.863615554092186e-05 -0.0012708841558196583 -0.0012918070628861519 0.0045010717035355889
leaf_weight=21 40 37 22
leaf_count=21 40 37 22
internal_value=0 0.00635442 0.0229377
internal_weight=0 80 43
internal_count=120 80 43
shrinkage=0.1


Tree=63
num_leaves=4
num_cat=0
split_feature=2 0 2
split_gain=0.0100677 0.0154621 0.00218942
threshold=5.2000000000000002 5.7500000000000009 1.6500000000000001
decision_type=2 2 2
left_child=1 2 -1
right_child=-2 -3 -4
leaf_value=-1.9144586071238989e-05 0.0016999397085143116 -0.0021920832504025278 0.0012209382388391533
leaf_weight=35 27 34 24
leaf_count=35 27 34 24
internal_value=0 -0.00493531 0.00485296
internal_weight=0 93 59
internal_count=120 93 59
shrinkage=0.1


Tree=64
num_leaves=5
num_cat=0
split_feature=0 0 0 1
split_gain=0.00845085 0.0208312 0.0113163 0.000124107
threshold=5.9500000000000011 5.4500000000000011 6.4500000000000011 3.3500000000000001
decision_type=2 2 2 2
left_child=1 3 -2 -1
right_child=2 -3 -4 -5
leaf_value=0.00074482493440709309 0.0024325867165596441 -0.0031065755989402536 -0.00049036264471295809 0.00040495562875135374
leaf_weight=21 26 24 27 22
leaf_count=21 26 24 27 22
internal_value=0 -0.0074638 0.00943537 0.00570938
internal_weight=0 67 53 43
internal_count=120 67 53 43
shrinkage=0.1


Tree=65
num_leaves=4
num_cat=0
split_feature=0 1 0
split_gain=0.00883984 0.0220221 0.0194553
threshold=6.2500000000000009 3.0500000000000003 5.6500000000000012
decision_type=2 2 2
left_child=1 2 -1
right_child=-2 -3 -4
leaf_value=-3.1197780377364589e-05 -0.0012137984548462556 -0.0011817214054030342 0.0042241263499652798
leaf_weight=21 40 37 22
leaf_count=21 40 37 22
internal_value=0 0.00606899 0.0214594
internal_weight=0 80 43
internal_count=120 80 43
shrinkage=0.1


Tree=66
num_leaves=5
num_cat=0
split_feature=2 0 0 2
split_gain=0.00881401 0.0117404 0.00270967 0.00184244
threshold=5.5500000000000007 5.7500000000000009 6.2500000000000009 1.6500000000000001
decision_type=2 2 2 2
left_child=1 3 -3 -1
right_child=-2 2 -4 -5
leaf_value=5.7227344534892064e-05 0.0019163779054360932 -0.0008500424004159869 -0.0024764345382295907 0.0011948107998856964
leaf_weight=35 20 20 21 24
leaf_count=35 20 20 21 24
internal_value=0 -0.00383276 -0.0168307 0.00519973
internal_weight=0 100 41 59
internal_count=120 100 41 59
shrinkage=0.1


Tree=67
num_leaves=4
num_cat=0
split_feature=2 0 0
split_gain=0.00782719 0.0131633 0.00192904
threshold=5.2000000000000002 5.7500000000000009 5.1500000000000012
decision_type=2 2 2
left_child=1 2 -1
right_child=-2 -3 -4
leaf_value=0.00097552020881928262 0.0014988970869496741 -0.0020023764097405711 -0.00017621513935200012
leaf_weight=33 27 34 26
leaf_count=33 27 34 26
internal_value=0 -0.00435164 0.00467976
internal_weight=0 93 59
internal_count=120 93 59
shrinkage=0.1


Tree=68
num_leaves=5
num_cat=0
split_feature=0 0 0 1
split_gain=0.00811334 0.017954 0.00893361 3.73751e-05
threshold=5.9500000000000011 5.4500000000000011 6.4500000000000011 3.3500000000000001
decision_type=2 2 2 2
left_child=1 3 -2 -1
right_child=2 -3 -4 -5
leaf_value=0.00058706637161473445 0.0022475370259668966 -0.0029224706924651403 -0.00034952879090000086 0.00040055531161752619
leaf_weight=21 26 24 27 22
leaf_count=21 26 24 27 22
internal_value=0 -0.00731324 0.00924503 0.00491642
internal_weight=0 67 53 43
internal_count=120 67 53 43
shrinkage=0.1


Tree=69
num_leaves=4
num_cat=0
split_feature=0 1 0
split_gain=0.00754627 0.0197237 0.0181016
threshold=6.2500000000000009 3.0500000000000003 5.6500000000000012
decision_type=2 2 2
left_child=1 2 -1
right_child=-2 -3 -4
leaf_value=-8.2774002276848825e-05 -0.0011214772553648801 -0.0011319709671157841 0.0040218307192183356
leaf_weight=21 40 37 22
leaf_count=21 40 37 22
internal_value=0 0.00560739 0.0201726
internal_weight=0 80 43
internal_count=120 80 43
shrinkage=0.1


Tree=70
num_leaves=4
num_cat=0
split_feature=2 0 0
split_gain=0.00673631 0.013341 0.00228667
threshold=5.2000000000000002 5.7500000000000009 5.0500000000000007
decision_type=2 2 2
left_child=1 2 -1
right_child=-2 -3 -4
leaf_value=-0.00017223698970930722 0.0013905287897041827 -0.0019814552314689057 0.0010773625601359527
leaf_weight=27 27 34 32
leaf_count=27 27 34 32
internal_value=0 -0.00403702 0.00505512
internal_weight=0 93 59
internal_count=120 93 59
shrinkage=0.1


Tree=71
num_leaves=5
num_cat=0
split_feature=0 0 0 1
split_gain=0.00708381 0.0166589 0.00657443 2.71276e-05
threshold=5.9500000000000011 5.4500000000000011 6.4500000000000011 3.3500000000000001
decision_type=2 2 2 2
left_child=1 3 -2 -1
right_child=2 -3 -4 -5
leaf_value=0.00057597883299292463 0.0019988331728829785 -0.0027939912494427217 -0.00022908155720129057 0.00041708066551522779
leaf_weight=21 26 24 27 22
leaf_count=21 26 24 27 22
internal_value=0 -0.0068335 0.00863858 0.00494682
internal_weight=0 67 53 43
internal_count=120 67 53 43
shrinkage=0.1


Tree=72
num_leaves=5
num_cat=0
split_feature=1 2 0 1
split_gain=0.00703144 0.0109151 0.0107217 0.0256073
threshold=2.7500000000000004 4.9500000000000011 5.0500000000000007 3.1500000000000008
decision_type=2 2 2 2
left_child=-1 2 -2 -4
right_child=1 -3 3 -5
leaf_value=0.0014554888144350398 -0.0014681982283946127 -0.0021000634240745395 0.0035012427940154856 -0.0013286198489367964
leaf_weight=26 23 27 23 21
leaf_count=26 23 27 23 21
internal_value=0 -0.00402582 0.00281478 0.0119608
internal_weight=0 94 67 44
internal_count=120 94 67 44
shrinkage=0.1


Tree=73
num_leaves=5
num_cat=0
split_feature=0 2 1 3
split_gain=0.0066249 0.0145853 0.0152445 0.00767979
threshold=6.1500000000000012 4.0500000000000007 3.1500000000000008 1.8500000000000003
decision_type=2 2 2 2
left_child=1 2 -1 -2
right_child=3 -3 -4 -5
leaf_value=-0.0023752092857400632 -0.0022976542455250058 0.0026044875402779629 0.0010904535464942456 0.00034462224575690928
leaf_weight=22 22 24 30 22
leaf_count=22 22 24 30 22
internal_value=0 0.00565351 -0.00375788 -0.00976516
internal_weight=0 76 52 44
internal_count=120 76 52 44
shrinkage=0.1


Tree=74
num_leaves=4
num_cat=0
split_feature=2 0 0
split_gain=0.00679856 0.0113324 0.0017392
threshold=5.4500000000000011 5.7500000000000009 5.1500000000000012
decision_type=2 2 2
left_child=1 2 -1
right_child=-2 -3 -4
leaf_value=0.00098284648830127539 0.0015457518014085035 -0.001713334694259653 -0.00011074997735424684
leaf_weight=33 23 38 26
leaf_count=33 23 38 26
internal_value=0 -0.00366518 0.00500923
internal_weight=0 97 59
internal_count=120 97 59
shrinkage=0.1


Tree=75
num_leaves=5
num_cat=0
split_feature=1 2 2 0
split_gain=0.00674387 0.00954241 0.0211224 0.019034
threshold=2.7500000000000004 4.4500000000000011 5.0500000000000007 5.1500000000000012
decision_type=2 2 2 2
left_child=-1 3 -3 -2
right_child=1 2 -4 -5
leaf_value=0.0014254143157114204 -0.0010909181079893774 -0.0038667098642326892 0.00045592766076039813 0.002948250899789855
leaf_weight=26 28 20 26 20
leaf_count=26 28 20 26 20
internal_value=0 -0.00394263 -0.0142348 0.00592069
internal_weight=0 94 46 48
internal_count=120 94 46 48
shrinkage=0.1


Tree=76
num_leaves=4
num_cat=0
split_feature=0 0 0
split_gain=0.00735126 0.0177399 0.00521934
threshold=5.9500000000000011 5.1500000000000012 6.4500000000000011
decision_type=2 2 2
left_child=1 -1 -2
right_child=2 -3 -4
leaf_value=0.00095552740491588019 0.0018912799208639906 -0.0022992108936544836 -9.3796418082934844e-05
leaf_weight=33 26 34 27
leaf_count=33 26 34 27
internal_value=0 -0.00696131 0.00880015
internal_weight=0 67 53
internal_count=120 67 53
shrinkage=0.1


Tree=77
num_leaves=5
num_cat=0
split_feature=0 2 1 0
split_gain=0.00600357 0.0148613 0.012371 0.00635998
threshold=6.1500000000000012 4.0500000000000007 3.1500000000000008 6.5500000000000007
decision_type=2 2 2 2
left_child=1 2 -1 -2
right_child=3 -3 -4 -5
leaf_value=-0.0022129677151414484 -0.0022466162740602158 0.0025965285535979395 0.00090902923916776979 0.00016791881062090398
leaf_weight=22 20 24 30 24
leaf_count=22 20 24 30 24
internal_value=0 0.00538188 -0.00411816 -0.00929597
internal_weight=0 76 52 44
internal_count=120 76 52 44
shrinkage=0.1


Tree=78
num_leaves=4
num_cat=0
split_feature=0 2 0
split_gain=0.00660528 0.0159817 0.00454323
threshold=5.9500000000000011 3.1500000000000004 6.4500000000000011
decision_type=2 2 2
left_child=1 -1 -2
right_child=2 -3 -4
leaf_value=0.00057003079095809927 0.0017776642084264987 -0.0025993174335990962 -7.4380789710967642e-05
leaf_weight=41 26 26 27
leaf_count=41 26 26 27
internal_value=0 -0.00659866 0.0083417
internal_weight=0 67 53
internal_count=120 67 53
shrinkage=0.1


Tree=79
num_leaves=5
num_cat=0
split_feature=1 2 0 1
split_gain=0.00687555 0.00952885 0.00916538 0.0245183
threshold=2.7500000000000004 4.9500000000000011 5.0500000000000007 3.1500000000000008
decision_type=2 2 2 2
left_child=-1 2 -2 -4
right_child=1 -3 3 -5
leaf_value=0.001439263396381508 -0.0013766552463335836 -0.0019841259483385971 0.0033422848227454109 -0.0013837584471773534
leaf_weight=26 23 27 23 21
leaf_count=26 23 27 23 21
internal_value=0 -0.00398094 0.00241053 0.0108667
internal_weight=0 94 67 44
internal_count=120 94 67 44
shrinkage=0.1


Tree=80
num_leaves=4
num_cat=0
split_feature=2 0 0
split_gain=0.00597867 0.0112461 0.00153332
threshold=5.4500000000000011 5.7500000000000009 5.1500000000000012
decision_type=2 2 2
left_child=1 2 -1
right_child=-2 -3 -4
leaf_value=0.00097292732503829582 0.0014495517461277222 -0.0016853889367714721 -5.3904381526920656e-05
leaf_weight=33 23 38 26
leaf_count=33 23 38 26
internal_value=0 -0.00343708 0.00520425
internal_weight=0 97 59
internal_count=120 97 59
shrinkage=0.1


Tree=81
num_leaves=5
num_cat=0
split_feature=1 2 0 1
split_gain=0.00595037 0.00828671 0.00854472 0.0208024
threshold=2.7500000000000004 4.9500000000000011 5.0500000000000007 3.1500000000000008
decision_type=2 2 2 2
left_child=-1 2 -2 -4
right_child=1 -3 3 -5
leaf_value=0.0013389323351965198 -0.0013362824552409028 -0.0018493922892957927 0.0031198477595234695 -0.001233364615057196
leaf_weight=26 23 27 23 21
leaf_count=26 23 27 23 21
internal_value=0 -0.00370343 0.00225692 0.0104218
internal_weight=0 94 67 44
internal_count=120 94 67 44
shrinkage=0.1


Tree=82
num_leaves=4
num_cat=0
split_feature=2 0 0
split_gain=0.00631677 0.0124882 0.00171403
threshold=5.2000000000000002 5.7500000000000009 5.1500000000000012
decision_type=2 2 2
left_child=1 2 -1
right_child=-2 -3 -4
leaf_value=0.00096717002293602986 0.0013465319395806917 -0.0019174237872528678 -0.00011848314092136347
leaf_weight=33 27 34 26
leaf_count=33 27 34 26
internal_value=0 -0.00390929 0.00488747
internal_weight=0 93 59
internal_count=120 93 59
shrinkage=0.1


Tree=83
num_leaves=4
num_cat=0
split_feature=0 2 2
split_gain=0.00571609 0.016472 0.00381438
threshold=5.9500000000000011 3.1500000000000004 5.0500000000000007
decision_type=2 2 2
left_child=1 -1 -2
right_child=2 -3 -4
leaf_value=0.00063477467586536232 -0.0001218124246224761 -0.0025828250021172261 0.0015776071897042649
leaf_weight=41 25 26 28
leaf_count=41 25 26 28
internal_value=0 -0.00613846 0.00775994
internal_weight=0 67 53
internal_count=120 67 53
shrinkage=0.1


Tree=84
num_leaves=5
num_cat=0
split_feature=1 2 0 1
split_gain=0.00618633 0.00845265 0.00882302 0.0191123
threshold=2.7500000000000004 4.9500000000000011 5.0500000000000007 3.1500000000000008
decision_type=2 2 2 2
left_child=-1 2 -2 -4
right_child=1 -3 3 -5
leaf_value=0.0013652221819099326 -0.001362848733349339 -0.0018713998453070719 0.0030455153880883821 -0.0011271103418299131
leaf_weight=26 23 27 23 21
leaf_count=26 23 27 23 21
internal_value=0 -0.00377615 0.00224358 0.0105403
internal_weight=0 94 67 44
internal_count=120 94 67 44
shrinkage=0.1


Tree=85
num_leaves=5
num_cat=0
split_feature=0 1 2 3
split_gain=0.00576374 0.0132412 0.00709794 0.0061677
threshold=6.1500000000000012 2.8500000000000001 1.5500000000000003 1.8500000000000003
decision_type=2 2 2 2
left_child=1 -1 -3 -2
right_child=3 2 -4 -5
leaf_value=0.0025310190596982193 -0.0020947953601452439 0.00071057540139761466 -0.0016142986811852706 0.00027311536991460756
leaf_weight=23 22 29 24 22
leaf_count=23 22 29 24 22
internal_value=0 0.00527328 -0.00342198 -0.0091084
internal_weight=0 76 53 44
internal_count=120 76 53 44
shrinkage=0.1


Tree=86
num_leaves=4
num_cat=0
split_feature=0 2 2
split_gain=0.00542547 0.0172042 0.00399239
threshold=5.9500000000000011 3.1500000000000004 5.0500000000000007
decision_type=2 2 2
left_child=1 -1 -2
right_child=2 -3 -4
leaf_value=0.00067803077740458454 -0.00016250741668045522 -0.0026102993923884173 0.0015761144625555193
leaf_weight=41 25 26 28
leaf_count=41 25 26 28
internal_value=0 -0.00598038 0.0075601
internal_weight=0 67 53
internal_count=120 67 53
shrinkage=0.1


Tree=87
num_leaves=5
num_cat=0
split_feature=0 1 2 0
split_gain=0.00575556 0.0125421 0.0583751 0.00506959
threshold=6.1500000000000012 3.1500000000000008 4.0500000000000007 6.5500000000000007
decision_type=2 2 2 2
left_child=1 2 -1 -2
right_child=3 -3 -4 -5
leaf_value=-0.0020199066641825168 -0.0020860403822734954 -0.00097940944833680983 0.0052648889646992429 6.9679240308081114e-05
leaf_weight=22 20 32 22 24
leaf_count=22 20 32 22 24
internal_value=0 0.00526954 0.0162249 -0.00910193
internal_weight=0 76 44 44
internal_count=120 76 44 44
shrinkage=0.1


Tree=88
num_leaves=5
num_cat=0
split_feature=1 2 2 0
split_gain=0.00477955 0.00905618 0.0224395 0.0158526
threshold=2.7500000000000004 4.4500000000000011 5.0500000000000007 5.1500000000000012
decision_type=2 2 2 2
left_child=-1 3 -3 -2
right_child=1 2 -4 -5
leaf_value=0.0011999968743811433 -0.00090694838270012818 -0.0038528216420672837 0.00060255319560663064 0.0027792343322653327
leaf_weight=26 28 20 26 20
leaf_count=26 28 20 26 20
internal_value=0 -0.00331914 -0.0133457 0.00628961
internal_weight=0 94 46 48
internal_count=120 94 46 48
shrinkage=0.1


Tree=89
num_leaves=4
num_cat=0
split_feature=0 2 0
split_gain=0.00510322 0.0176844 0.00399624
threshold=5.9500000000000011 3.1500000000000004 6.4500000000000011
decision_type=2 2 2
left_child=1 -1 -2
right_child=2 -3 -4
leaf_value=0.00071375211814373005 0.0016180912731215359 -0.0026201617832367239 -0.00011888914396641432
leaf_weight=41 26 26 27
leaf_count=41 26 26 27
internal_value=0 -0.00580006 0.00733214
internal_weight=0 67 53
internal_count=120 67 53
shrinkage=0.1


Tree=90
num_leaves=5
num_cat=0
split_feature=0 1 2 0
split_gain=0.00524906 0.0120679 0.0494122 0.00479806
threshold=6.1500000000000012 3.1500000000000008 4.0500000000000007 6.5500000000000007
decision_type=2 2 2 2
left_child=1 2 -1 -2
right_child=3 -3 -4 -5
leaf_value=-0.0017732680055566809 -0.0020131452707573771 -0.00097437656950205564 0.0049289870401315224 8.4047471561158696e-05
leaf_weight=22 20 32 22 24
leaf_count=22 20 32 22 24
internal_value=0 0.00503234 0.0157786 -0.00869222
internal_weight=0 76 44 44
internal_count=120 76 44 44
shrinkage=0.1


Tree=91
num_leaves=4
num_cat=0
split_feature=0 0 0
split_gain=0.00582796 0.0164499 0.00321461
threshold=5.1500000000000012 5.9500000000000011 6.4500000000000011
decision_type=2 2 2
left_child=-1 -2 -3
right_child=1 2 -4
leaf_value=0.0011315409291648504 -0.0021460067877984222 0.0014657753645084225 -9.2102738994139218e-05
leaf_weight=33 34 26 27
leaf_count=33 34 26 27
internal_value=0 -0.00429205 0.00672139
internal_weight=0 87 53
internal_count=120 87 53
shrinkage=0.1


Tree=92
num_leaves=5
num_cat=0
split_feature=0 1 2 0
split_gain=0.00482395 0.0111375 0.00674624 0.00445087
threshold=6.1500000000000012 2.8500000000000001 1.5500000000000003 6.5500000000000007
decision_type=2 2 2 2
left_child=1 -1 -3 -2
right_child=3 2 -4 -5
leaf_value=0.0023200651347313242 -0.0019350399752147496 0.00071131891795787319 -0.0015552254742942752 8.4852894845729085e-05
leaf_weight=23 20 29 24 24
leaf_count=23 20 29 24 24
internal_value=0 0.00482425 -0.00315041 -0.0083328
internal_weight=0 76 53 44
internal_count=120 76 53 44
shrinkage=0.1


Tree=93
num_leaves=4
num_cat=0
split_feature=0 0 2
split_gain=0.00435211 0.0147295 0.00333874
threshold=5.1500000000000012 5.9500000000000011 5.0500000000000007
decision_type=2 2 2
left_child=-1 -2 -3
right_child=1 2 -4
leaf_value=0.00097782657001957755 -0.0019954511909471714 -0.00016870186477899553 0.0014212359923736328
leaf_weight=33 34 25 28
leaf_count=33 34 25 28
internal_value=0 -0.003709 0.00671265
internal_weight=0 87 53
internal_count=120 87 53
shrinkage=0.1


Tree=94
num_leaves=4
num_cat=0
split_feature=0 3 1
split_gain=0.00486917 0.0123587 0.0130506
threshold=6.2500000000000009 1.3500000000000003 3.0500000000000003
decision_type=2 2 2
left_child=1 2 -1
right_child=-2 -3 -4
leaf_value=-0.0020255370717495681 -0.00090084861847572028 0.00253375476569913 0.00098422117093030135
leaf_weight=25 40 21 34
leaf_count=25 40 21 34
internal_value=0 0.00450424 -0.002911
internal_weight=0 80 59
internal_count=120 80 59
shrinkage=0.1


Tree=95
num_leaves=5
num_cat=0
split_feature=1 2 0 1
split_gain=0.00428068 0.00842171 0.00830283 0.014616
threshold=2.7500000000000004 4.9500000000000011 5.0500000000000007 3.1500000000000008
decision_type=2 2 2 2
left_child=-1 2 -2 -4
right_child=1 -3 3 -5
leaf_value=0.0011356460252920024 -0.0012529519649789385 -0.0018051635008305312 0.0028331441531443727 -0.00081580000973883137
leaf_weight=26 23 27 23 21
leaf_count=26 23 27 23 21
internal_value=0 -0.00314115 0.00286756 0.010916
internal_weight=0 94 67 44
internal_count=120 94 67 44
shrinkage=0.1


Tree=96
num_leaves=4
num_cat=0
split_feature=2 0 0
split_gain=0.00434896 0.0128752 0.00168508
threshold=5.2000000000000002 5.7500000000000009 5.0500000000000007
decision_type=2 2 2
left_child=1 2 -1
right_child=-2 -3 -4
leaf_value=-1.2976067416645861e-05 0.0011172793943572928 -0.0018743354197153274 0.0010597254658932798
leaf_weight=27 27 34 32
leaf_count=27 27 34 32
internal_value=0 -0.00324371 0.00568828
internal_weight=0 93 59
internal_count=120 93 59
shrinkage=0.1


Tree=97
num_leaves=4
num_cat=0
split_feature=0 2 1
split_gain=0.00416226 0.0165438 0.00343344
threshold=5.9500000000000011 3.1500000000000004 2.9500000000000006
decision_type=2 2 2
left_child=1 -1 -2
right_child=2 -3 -4
leaf_value=0.00072752748979482715 -0.00029324850977652456 -0.0024970745757365458 0.0013402185447874571
leaf_weight=41 22 26 31
leaf_count=41 22 26 31
internal_value=0 -0.00523811 0.00662176
internal_weight=0 67 53
internal_count=120 67 53
shrinkage=0.1


Tree=98
num_leaves=5
num_cat=0
split_feature=1 2 2 0
split_gain=0.00477899 0.00796032 0.0199449 0.0162489
threshold=2.7500000000000004 4.4500000000000011 5.0500000000000007 5.1500000000000012
decision_type=2 2 2 2
left_child=-1 3 -3 -2
right_child=1 2 -4 -5
leaf_value=0.0011999261207305469 -0.00098601839937535784 -0.0036460777488537136 0.00055434246225139264 0.0027459542476572099
leaf_weight=26 28 20 26 20
leaf_count=26 28 20 26 20
internal_value=0 -0.00331894 -0.0127193 0.0056897
internal_weight=0 94 46 48
internal_count=120 94 46 48
shrinkage=0.1


Tree=99
num_leaves=5
num_cat=0
split_feature=0 1 2 0
split_gain=0.00433804 0.0112118 0.0414415 0.00341471
threshold=6.1500000000000012 3.1500000000000008 4.0500000000000007 6.5500000000000007
decision_type=2 2 2 2
left_child=1 2 -1 -2
right_child=3 -3 -4 -5
leaf_value=-0.0015756699976257303 -0.0017552296654321253 -0.0009667527308920399 0.0045622543818105692 1.3992429012432695e-05
leaf_weight=22 20 32 22 24
leaf_count=22 20 32 22 24
internal_value=0 0.00457484 0.0149329 -0.00790199
internal_weight=0 76 44 44
internal_count=120 76 44 44
shrinkage=0.1


end of trees

feature importances:
Column_0=119
Column_2=97
Column_1=83
Column_3=40

parameters:
[boosting: gbdt]
[objective: regression]
[metric: ]
[tree_learner: serial]
[device_type: cpu]
[data: ]
[valid: ]
[num_iterations: 100]
[learning_rate: 0.1]
[num_leaves: 31]
[num_threads: 0]
[max_depth: -1]
[min_data_in_leaf: 20]
[min_sum_hessian_in_leaf: 0.001]
[bagging_fraction: 1]
[pos_bagging_fraction: 1]
[neg_bagging_fraction: 1]
[bagging_freq: 0]
[bagging_seed: 3]
[feature_fraction: 1]
[feature_fraction_bynode: 1]
[feature_fraction_seed: 2]
[early_stopping_round: 0]
[first_metric_only: 0]
[max_delta_step: 0]
[lambda_l1: 0]
[lambda_l2: 0]
[min_gain_to_split: 0]
[drop_rate: 0.1]
[max_drop: 50]
[skip_drop: 0.5]
[xgboost_dart_mode: 0]
[uniform_drop: 0]
[drop_seed: 4]
[top_rate: 0.2]
[other_rate: 0.1]
[min_data_per_group: 100]
[max_cat_threshold: 32]
[cat_l2: 10]
[cat_smooth: 10]
[max_cat_to_onehot: 4]
[top_k: 20]
[monotone_constraints: ]
[feature_contri: ]
[forcedsplits_filename: ]
[forcedbins_filename: ]
[refit_decay_rate: 0.9]
[cegb_tradeoff: 1]
[cegb_penalty_split: 0]
[cegb_penalty_feature_lazy: ]
[cegb_penalty_feature_coupled: ]
[verbosity: 1]
[max_bin: 255]
[max_bin_by_feature: ]
[min_data_in_bin: 3]
[bin_construct_sample_cnt: 200000]
[histogram_pool_size: -1]
[data_random_seed: 1]
[output_model: LightGBM_model.txt]
[snapshot_freq: -1]
[input_model: ]
[output_result: LightGBM_predict_result.txt]
[initscore_filename: ]
[valid_data_initscores: ]
[pre_partition: 0]
[enable_bundle: 1]
[max_conflict_rate: 0]
[is_enable_sparse: 1]
[sparse_threshold: 0.8]
[use_missing: 1]
[zero_as_missing: 0]
[two_round: 0]
[save_binary: 0]
[header: 0]
[label_column: ]
[weight_column: ]
[group_column: ]
[ignore_column: ]
[categorical_feature: ]
[predict_raw_score: 0]
[predict_leaf_index: 0]
[predict_contrib: 0]
[num_iteration_predict: -1]
[pred_early_stop: 0]
[pred_early_stop_freq: 10]
[pred_early_stop_margin: 10]
[convert_model_language: ]
[convert_model: gbdt_prediction.cpp]
[num_class: 1]
[is_unbalance: 0]
[scale_pos_weight: 1]
[sigmoid: 1]
[boost_from_average: 1]
[reg_sqrt: 0]
[alpha: 0.9]
[fair_c: 1]
[poisson_max_delta_step: 0.7]
[tweedie_variance_power: 1.5]
[max_position: 20]
[lambdamart_norm: 1]
[label_gain: ]
[metric_freq: 1]
[is_provide_training_metric: 0]
[eval_at: ]
[multi_error_top_k: 1]
[num_machines: 1]
[local_listen_port: 12400]
[time_out: 120]
[machine_list_filename: ]
[machines: ]
[gpu_platform_id: -1]
[gpu_device_id: -1]
[gpu_use_dp: 0]

end of parameters

pandas_categorical:null
